<?xml version="1.0"?>
<opencv_storage>
<opencv_ml_svm>
  <format>3</format>
  <svmType>C_SVC</svmType>
  <kernel>
    <type>LINEAR</type></kernel>
  <C>1.</C>
  <term_criteria><iterations>100</iterations></term_criteria>
  <var_count>20</var_count>
  <class_count>2</class_count>
  <class_labels type_id="opencv-matrix">
    <rows>2</rows>
    <cols>1</cols>
    <dt>i</dt>
    <data>
      0 1</data></class_labels>
  <sv_total>1</sv_total>
  <support_vectors>
    <_>
      3.95245142e-02 -2.27224939e-02 -5.67849725e-03 4.33017686e-02
      2.32118722e-02 4.87875342e-02 -3.67231754e-04 2.88761244e-03
      -5.04920557e-02 -5.35429269e-02 1.05770864e-02 2.08591800e-02
      -1.02770878e-02 -8.60046537e-04 -1.30706308e-02 2.05458980e-03
      -5.13872423e-04 -6.29620859e-04 -5.42304590e-02 -5.21485601e-03</_></support_vectors>
  <uncompressed_sv_total>24</uncompressed_sv_total>
  <uncompressed_support_vectors>
    <_>
      2.15977005e+02 5.26468010e+01 -1.31824005e+00 4.26622009e+00
      2.31022995e+02 3.67145004e+01 -1.54197007e-01 4.94601995e-01
      3.10977001e+01 3.64444008e+01 8.50203991e-01 2.60122009e-02
      4.99143004e-01 7.37374008e-01 6.11110985e-01 8.23602974e-01
      1.93754005e+00 1.33499997e-02 5.67400017e+01 1.52970001e-01</_>
    <_>
      2.23029999e+02 4.68666000e+01 -1.27514005e+00 5.00588989e+00
      2.36184006e+02 2.92500992e+01 -1.07193001e-01 3.48145008e-01
      2.63533001e+01 3.52848015e+01 1.22812998e+00 8.48857015e-02
      7.49900997e-01 7.48044014e-01 5.70057988e-01 9.63617027e-01
      1.85907996e+00 2.00744998e-02 3.22214012e+01 2.31364995e-01</_>
    <_>
      1.56423004e+02 5.34392014e+01 -1.73453003e-01 2.86072993e+00
      2.16901001e+02 2.90240993e+01 -9.84136984e-02 1.71717003e-01
      9.48238983e+01 5.06833000e+01 6.72891974e-01 9.81807010e-04
      2.15740994e-01 5.21885991e-01 2.19373003e-01 8.42287004e-01
      1.44599998e+00 4.16667014e-02 1.19375000e+02 1.35303000e-02</_>
    <_>
      1.99225998e+02 4.54468994e+01 -2.08369002e-01 2.23761010e+00
      2.31434006e+02 2.24596004e+01 -5.77832013e-02 8.96328986e-02
      5.04151001e+01 4.08806000e+01 7.38645971e-01 3.33857015e-02
      2.18667001e-01 5.94828010e-01 1.37931004e-01 9.54060972e-01
      1.71920002e+00 2.02019997e-02 1.27575998e+01 2.72489011e-01</_>
    <_>
      1.61595001e+02 5.57067986e+01 3.70395005e-01 1.78669000e+00
      1.98473007e+02 4.21758995e+01 -2.41775006e-01 -9.11192968e-02
      6.90901031e+01 3.99477997e+01 -2.98875988e-01 7.40163028e-02
      1.82811007e-01 4.92087990e-01 8.34792972e-01 5.74185014e-01
      1.77608001e+00 3.75839993e-02 5.07394981e+00 6.15347028e-01</_>
    <_>
      2.15270996e+02 5.07323990e+01 -7.06656992e-01 5.13738012e+00
      2.32612000e+02 3.03815002e+01 -6.17083982e-02 1.77718997e-01
      3.10235004e+01 4.23955994e+01 1.63864005e+00 1.08223999e+00
      1.46723002e-01 6.86275005e-01 8.82352963e-02 9.14340019e-01
      1.74015999e+00 1.97368003e-02 5.10262985e+01 9.32214037e-02</_>
    <_>
      2.19119003e+02 4.97929001e+01 -9.47543025e-01 6.18829012e+00
      2.35761002e+02 2.89248009e+01 -9.46180001e-02 2.92145997e-01
      3.17164001e+01 4.12560005e+01 1.72130001e+00 6.86318994e-01
      1.67329997e-01 5.63914001e-01 1.19047999e-01 9.15080011e-01
      1.99442005e+00 1.11753996e-02 2.18712997e+01 2.29562998e-01</_>
    <_>
      1.89328995e+02 4.01087990e+01 2.69213994e-03 1.70912004e+00
      2.30218994e+02 1.58514004e+01 -1.54529000e-02 5.87027008e-03
      6.11232986e+01 3.81955986e+01 -5.40697984e-02 3.36732008e-02
      1.45279005e-01 3.05038989e-01 2.32235998e-01 8.97970021e-01
      1.07918000e+00 8.33332986e-02 1.46667004e+01 8.92911032e-02</_>
    <_>
      1.02706001e+02 3.98179007e+00 1.78926003e+00 7.41912985e+00
      1.13039001e+02 3.00301003e+00 5.87423972e-04 -2.96760008e-05
      3.40587997e+01 1.38809996e+01 7.15375990e-02 1.01800002e-02
      2.73773015e-01 4.23648000e-01 3.78946990e-01 8.88042986e-01
      1.12989998e+00 7.65305981e-02 5.05000000e+01 1.70128003e-01</_>
    <_>
      1.84059006e+02 5.29450989e+01 -1.01733997e-01 1.82946002e+00
      2.19751007e+02 3.19305992e+01 -1.30485997e-01 1.02770999e-01
      6.04501991e+01 4.36363983e+01 1.11769997e-01 1.00213997e-01
      1.26730993e-01 3.99066001e-01 6.78988993e-01 5.47568977e-01
      1.84642994e+00 5.33263013e-02 1.54466000e+01 4.95983988e-01</_>
    <_>
      2.04738007e+02 5.02644997e+01 -3.45853001e-01 2.29942012e+00
      2.31371002e+02 2.63798008e+01 -8.13800022e-02 1.34104997e-01
      4.43443985e+01 4.36188011e+01 6.84903026e-01 -1.19904997e-02
      5.05635023e-01 7.01295972e-01 6.27951026e-01 7.81301975e-01
      1.82535994e+00 5.43872006e-02 2.42371998e+01 4.66320992e-01</_>
    <_>
      2.11057999e+02 4.78912010e+01 -2.12860003e-01 2.89604998e+00
      2.36584000e+02 2.00491009e+01 -3.14477012e-02 5.38152009e-02
      4.09123993e+01 4.47568016e+01 9.99854028e-01 -1.03328004e-02
      5.46303988e-01 6.79951012e-01 5.94765007e-01 8.30660999e-01
      1.62194002e+00 8.12857002e-02 3.06819000e+01 4.74781990e-01</_>
    <_>
      2.22809006e+02 4.35800018e+01 -2.28306007e+00 7.62627983e+00
      2.35914993e+02 3.48827019e+01 -1.28018007e-01 3.89292985e-01
      2.36170006e+01 2.52187004e+01 6.81222022e-01 8.50787014e-02
      4.10106987e-01 5.98142982e-01 2.98851013e-01 9.55049992e-01 0. 0.
      0. 0.</_>
    <_>
      2.35903000e+02 2.58836002e+01 -2.22958994e+00 9.77346992e+00
      2.44645004e+02 1.72075996e+01 -4.46590006e-01 2.17438006e+00 16.
      1.79228001e+01 1.05637002e+00 -1.26057005e+00 2.35130996e-01
      4.14633989e-01 2.43901998e-01 9.11119998e-01 0. 0. 0. 0.</_>
    <_>
      1.89811996e+02 5.82932014e+01 -3.22095007e-01 1.93116999e+00
      2.20220001e+02 3.65488014e+01 -1.16681002e-01 1.67527005e-01
      5.28657990e+01 4.83302994e+01 4.58301008e-01 -3.84349003e-02
      1.75200000e-01 4.06066000e-01 4.53895986e-01 6.94941998e-01
      1.97237003e+00 1.36575997e-02 7.79597015e+01 1.09626003e-01</_>
    <_>
      1.67733002e+02 4.68997993e+01 -2.00630993e-01 1.94607997e+00
      2.16132996e+02 2.70797997e+01 -5.63974008e-02 4.33313996e-02
      7.80999985e+01 4.07752991e+01 4.59387004e-01 6.25137016e-02
      3.30978990e-01 5.29156029e-01 3.01205009e-01 9.29867983e-01
      1.34241998e+00 4.54544984e-02 33. 1.88861996e-01</_>
    <_>
      2.24934006e+02 4.68527985e+01 -4.28862005e-01 5.12643003e+00
      2.40727005e+02 2.03153000e+01 -3.10689006e-02 8.76083970e-02
      2.83724995e+01 4.32211990e+01 1.79737997e+00 6.30721003e-02
      6.79567993e-01 7.40725994e-01 4.92146999e-01 9.35636997e-01
      1.61285996e+00 6.28945976e-02 4.38585014e+01 3.16857994e-01</_>
    <_>
      2.21945999e+02 4.97989998e+01 -8.53945971e-01 4.79732990e+00
      2.37069000e+02 2.69676991e+01 -4.28249016e-02 1.19874001e-01
      2.89202003e+01 4.17577019e+01 1.51230001e+00 1.09669998e-01
      4.22731012e-01 7.48427987e-01 4.52829987e-01 7.91710019e-01
      1.61969995e+00 5.55183999e-02 3.54536018e+01 3.11390996e-01</_>
    <_>
      2.26427994e+02 4.38249016e+01 -8.92499983e-01 5.78576994e+00
      2.39880005e+02 2.26658993e+01 -5.83120994e-02 1.91679001e-01
      2.55007992e+01 3.74844017e+01 1.75118005e+00 -4.69577014e-02
      4.77470994e-01 7.45550990e-01 4.19048011e-01 8.21990013e-01
      1.56085002e+00 8.38233978e-02 2.61637001e+01 4.56916004e-01</_>
    <_>
      1.98589005e+02 4.98488998e+01 -2.29662001e-01 1.82687998e+00
      2.29854996e+02 2.61098003e+01 -1.11566998e-01 1.78351000e-01
      5.05093994e+01 4.38889008e+01 3.89378011e-01 -8.46676007e-02
      5.68307996e-01 6.93910003e-01 4.99621004e-01 8.84521008e-01
      1.86798000e+00 2.46603992e-02 8.44524002e+00 5.01770973e-01</_>
    <_>
      2.09792007e+02 4.86655006e+01 -1.61810994e-01 2.07210994e+00
      2.36199997e+02 1.90317993e+01 -2.26917993e-02 3.55646014e-02
      4.29445992e+01 4.55218010e+01 7.37730980e-01 -4.59540002e-02
      5.09931028e-01 6.54298007e-01 4.43491012e-01 8.88000011e-01
      1.80315006e+00 3.40854004e-02 2.28353004e+01 3.46273005e-01</_>
    <_>
      2.40809006e+02 2.49486008e+01 -5.61232984e-01 1.33706999e+01
      2.47410995e+02 8.94256973e+00 -1.86119992e-02 7.92594999e-02
      1.33816004e+01 2.35886993e+01 3.27682996e+00 -2.62080003e-02
      2.15988994e-01 7.05999970e-01 2.50000000e-01 7.10196018e-01
      6.69475973e-01 4.91593003e-01 2.57691002e+01 7.69990027e-01</_>
    <_>
      1.62884995e+02 5.94079018e+01 -1.09233998e-01 2.45346999e+00
      2.03677994e+02 4.15788994e+01 -1.10050999e-01 1.83798000e-02
      7.38087006e+01 5.12088013e+01 3.35348010e-01 1.44345999e-01
      3.10959995e-01 3.98059011e-01 6.35851979e-01 8.40390027e-01
      1.81376004e+00 1.62962992e-02 6.86667023e+01 1.62276998e-01</_>
    <_>
      1.56862000e+02 6.06082001e+01 -2.95663998e-02 2.30146003e+00
      2.04513000e+02 3.94065018e+01 -1.01944998e-01 4.17602994e-02
      8.22321014e+01 5.67318001e+01 1.77264005e-01 -3.55358012e-02
      1.42781004e-01 3.11417013e-01 8.49627972e-01 6.07340991e-01
      1.85640001e+00 1.52605996e-02 4.89630013e+01 1.77141994e-01</_></uncompressed_support_vectors>
  <decision_functions>
    <_>
      <sv_count>1</sv_count>
      <rho>7.2437656897984191e+00</rho>
      <alpha>
        1.</alpha>
      <index>
        0</index></_></decision_functions></opencv_ml_svm>
</opencv_storage>
